{"ip":0,"fr":60,"v":"5.1.20","assets":[],"layers":[{"ty":4,"nm":"Shadow","ip":0,"st":0,"ind":6,"hix":1,"ks":{"o":{"a":1,"k":[{"t":0,"s":[100],"e":[80],"i":{"x":[0.515],"y":[0.955]},"o":{"x":[0.455],"y":[0.03]}},{"t":30,"s":[80],"e":[100],"i":{"x":[0.515],"y":[0.955]},"o":{"x":[0.455],"y":[0.03]}},{"t":60}]},"or":{"a":0,"k":[0,0,0]},"a":{"a":0,"k":[32.5,3,0]},"p":{"s":true,"x":{"a":1,"k":[{"t":0,"s":[254.99999999999997],"e":[253.4865006139025],"i":{"x":[0.515],"y":[0.955]},"o":{"x":[0.455],"y":[0.03]}},{"t":30,"s":[253.4865006139025],"e":[254.99999999999997],"i":{"x":[0.515],"y":[0.955]},"o":{"x":[0.455],"y":[0.03]}},{"t":60}]},"y":{"a":1,"k":[{"t":0,"s":[212.615],"e":[213.16600003395675],"i":{"x":[0.515],"y":[0.955]},"o":{"x":[0.455],"y":[0.03]}},{"t":30,"s":[213.16600003395675],"e":[212.615],"i":{"x":[0.515],"y":[0.955]},"o":{"x":[0.455],"y":[0.03]}},{"t":60}]}},"rx":{"a":0,"k":0},"ry":{"a":0,"k":0},"rz":{"a":0,"k":0},"s":{"a":1,"k":[{"t":0,"s":[100,100],"e":[73.7,63.3],"i":{"x":[0.515,0.515],"y":[0.955,0.955]},"o":{"x":[0.455,0.455],"y":[0.03,0.03]}},{"t":30,"s":[73.7,63.3],"e":[100,100],"i":{"x":[0.515,0.515],"y":[0.955,0.955]},"o":{"x":[0.455,0.455],"y":[0.03,0.03]}},{"t":60}]}},"shapes":[{"ty":"gr","nm":"Shadow shape group","it":[{"ty":"el","p":{"a":0,"k":[787,455]},"s":{"a":0,"k":[65,6]}},{"ty":"st","o":{"a":0,"k":0},"w":{"a":0,"k":0},"c":{"a":0,"k":[0,0,0,0]},"lc":3,"lj":1,"ml":1},{"ty":"fl","o":{"a":0,"k":100},"r":2,"c":{"a":0,"k":[0.44313725490196076,0.44313725490196076,0.44313725490196076,1]}},{"ty":"tr","o":{"a":0,"k":100},"a":{"a":0,"k":[0,0]},"s":{"a":0,"k":[100,100]},"p":{"a":0,"k":[-755,-452]},"r":{"a":0,"k":0}}]}],"op":60},{"ty":4,"nm":"Gills","ip":0,"st":0,"ind":5,"hix":3,"ks":{"o":{"a":0,"k":100},"or":{"a":0,"k":[0,0,0]},"a":{"a":0,"k":[4.5,5.5,0]},"p":{"s":true,"x":{"a":1,"k":[{"t":0,"s":[246.68947552715406],"e":[247.189453125],"i":{"x":[0.515],"y":[0.955]},"o":{"x":[0.455],"y":[0.03]}},{"t":30,"s":[247.189453125],"e":[246.68947552715406],"i":{"x":[0.515],"y":[0.955]},"o":{"x":[0.455],"y":[0.03]}},{"t":60}]},"y":{"a":1,"k":[{"t":0,"s":[180.6535478509509],"e":[170],"i":{"x":[0.515],"y":[0.955]},"o":{"x":[0.455],"y":[0.03]}},{"t":30,"s":[170],"e":[180.6535478509509],"i":{"x":[0.515],"y":[0.955]},"o":{"x":[0.455],"y":[0.03]}},{"t":60}]}},"rx":{"a":0,"k":0},"ry":{"a":0,"k":0},"rz":{"a":1,"k":[{"t":0,"s":[0],"e":[6.875493541569878],"i":{"x":[0.515],"y":[0.955]},"o":{"x":[0.455],"y":[0.03]}},{"t":30,"s":[6.875493541569878],"e":[0],"i":{"x":[0.515],"y":[0.955]},"o":{"x":[0.455],"y":[0.03]}},{"t":60}]},"s":{"a":0,"k":[100,100,100]}},"shapes":[{"ty":"gr","nm":"Gills shape group","it":[{"ty":"sh","ks":{"a":0,"k":{"c":true,"v":[[6.95018385,0.876727222],[4.95068908,9.88442901],[6.08295322,6.55950881],[6.49621346,5.1908374],[6.59694499,2.37965408],[5.76249126,0.230517969]],"i":[[-0.042589089999999885,-0.06754727399999993],[1.6429155900000003,0.82556619],[-0.4625299500000004,1.3970958000000007],[-0.0264094100000003,0.17044148999999997],[0.34217403999999974,0.31151461000000014],[-0.07526159000000021,0.07877019099999999]],"o":[[0.9119073999999996,1.4466025080000002],[-0.010751660000000385,-0.00545413000000039],[0.21753834999999988,-0.6572223999999993],[0.04530308999999999,-0.2924251600000005],[-0.1622142999999996,-0.14778587999999981],[0.3601282699999997,-0.377173913]]}}},{"ty":"st","o":{"a":0,"k":0},"w":{"a":0,"k":0},"c":{"a":0,"k":[0,0,0,0]},"lc":3,"lj":1,"ml":1},{"ty":"fl","o":{"a":0,"k":100},"r":2,"c":{"a":0,"k":[0.2,0.2,0.2,1]}},{"ty":"tr","o":{"a":0,"k":100},"a":{"a":0,"k":[0,0]},"s":{"a":0,"k":[100,100]},"p":{"a":0,"k":[0.817,0.527]},"r":{"a":0,"k":0}}]},{"ty":"gr","nm":"Gills shape group","it":[{"ty":"sh","ks":{"a":0,"k":{"c":true,"v":[[4.77615735,0.889942993],[2.77666258,9.89764478],[3.90892673,6.57282947],[4.32229135,5.20405317],[4.42302288,2.39286985],[3.58856915,0.24373374]],"i":[[-0.04248470000000015,-0.06744238700000005],[1.64301998,0.8255661199999995],[-0.4624255700000002,1.3970957999999998],[-0.0264094100000003,0.17044148999999997],[0.34217403999999974,0.31161949999999994],[-0.07526159000000021,0.07887507800000002]],"o":[[0.9119073999999996,1.4466025070000001],[-0.010751650000000001,-0.005349240000001032],[0.21764272999999967,-0.6573272900000005],[0.04519870999999931,-0.29242515999999963],[-0.16221430000000048,-0.14768099],[0.3601282699999997,-0.37706902600000003]]}}},{"ty":"st","o":{"a":0,"k":0},"w":{"a":0,"k":0},"c":{"a":0,"k":[0,0,0,0]},"lc":3,"lj":1,"ml":1},{"ty":"fl","o":{"a":0,"k":100},"r":2,"c":{"a":0,"k":[0.2,0.2,0.2,1]}},{"ty":"tr","o":{"a":0,"k":100},"a":{"a":0,"k":[0,0]},"s":{"a":0,"k":[100,100]},"p":{"a":0,"k":[0.817,0.527]},"r":{"a":0,"k":0}}]},{"ty":"gr","nm":"Gills shape group","it":[{"ty":"sh","ks":{"a":0,"k":{"c":true,"v":[[1.99962061,0.733975917],[0.000125837159,9.74178259],[1.13238998,6.41686239],[1.5457546,5.04808609],[1.64648613,2.23690278],[0.812032405,0.0877666632]],"i":[[-0.04248469999999993,-0.06744238800000002],[1.643019972841,0.8254612100000003],[-0.4624255669999999,1.3970958099999997],[-0.026409399999999916,0.17054638000000022],[0.3421740500000001,0.31161949],[-0.0752615889999999,0.07887507880000001]],"o":[[0.9119074,1.446707393],[-0.010751655459,-0.00545413000000039],[0.21764274000000006,-0.6572224000000002],[0.045198709999999975,-0.29232027000000027],[-0.1622142900000001,-0.14768099999999995],[0.36012826500000006,-0.37706902519999996]]}}},{"ty":"st","o":{"a":0,"k":0},"w":{"a":0,"k":0},"c":{"a":0,"k":[0,0,0,0]},"lc":3,"lj":1,"ml":1},{"ty":"fl","o":{"a":0,"k":100},"r":2,"c":{"a":0,"k":[0.2,0.2,0.2,1]}},{"ty":"tr","o":{"a":0,"k":100},"a":{"a":0,"k":[0,0]},"s":{"a":0,"k":[100,100]},"p":{"a":0,"k":[0.817,0.527]},"r":{"a":0,"k":0}}]}],"op":60},{"ty":4,"nm":"Fins","ip":0,"st":0,"ind":4,"hix":4,"ks":{"o":{"a":0,"k":100},"or":{"a":0,"k":[0,0,0]},"a":{"a":0,"k":[10.5,30,0]},"p":{"s":true,"x":{"a":1,"k":[{"t":0,"s":[252],"e":[252.189453125],"i":{"x":[0.515],"y":[0.955]},"o":{"x":[0.455],"y":[0.03]}},{"t":30,"s":[252.189453125],"e":[252],"i":{"x":[0.515],"y":[0.955]},"o":{"x":[0.455],"y":[0.03]}},{"t":60}]},"y":{"a":1,"k":[{"t":0,"s":[177.5],"e":[166.6540069580078],"i":{"x":[0.515],"y":[0.955]},"o":{"x":[0.455],"y":[0.03]}},{"t":30,"s":[166.6540069580078],"e":[177.5],"i":{"x":[0.515],"y":[0.955]},"o":{"x":[0.455],"y":[0.03]}},{"t":60}]}},"rx":{"a":0,"k":0},"ry":{"a":0,"k":0},"rz":{"a":0,"k":0},"s":{"a":0,"k":[100,100,100]}},"shapes":[{"ty":"gr","nm":"Fins shape group","it":[{"ty":"sh","ks":{"a":0,"k":{"c":true,"v":[[0.000192742402,40.8532287],[10.7378607,56.8893083],[16.1774676,58.9057623],[16.0340426,58.3078011],[13.4632487,47.5089428],[14.2366372,39.4398754],[15.0889408,37.0861046],[3.91421288,38.1795523],[1.0641891,39.4598039]],"i":[[-0.014822670702,-0.034088300000000515],[-6.378445770000001,-3.958228300000002],[-0.5285011999999991,0.7682977999999991],[-0.023904099999999318,0.17065120000000178],[0.3225496999999997,2.2851745999999977],[-0.6921768999999998,2.2895798999999997],[0.03131549999999983,0.04719920000000144],[0.9145170299999998,-0.20767639999999687],[0.71357589,-0.8049034000000006]],"o":[[2.712026807598,6.255360099999997],[0.39311389999999946,0.24396729999999422],[0.1467653999999996,-0.2133402999999987],[0.20918759999999992,-1.4953749999999957],[-0.330169699999999,-2.3398208999999994],[0.021190199999999493,-0.07027430000000123],[-0.3638861000000002,-0.547615399999998],[-1.176419,0.2670425000000023],[-0.23444872400000016,0.26452520000000135]]}}},{"ty":"st","o":{"a":0,"k":0},"w":{"a":0,"k":0},"c":{"a":0,"k":[0,0,0,0]},"lc":3,"lj":1,"ml":1},{"ty":"fl","o":{"a":0,"k":100},"r":2,"c":{"a":0,"k":[0.20784313725490197,0.5058823529411764,0.6980392156862745,1]}},{"ty":"tr","o":{"a":0,"k":100},"a":{"a":0,"k":[0,0]},"s":{"a":0,"k":[100,100]},"p":{"a":0,"k":[0.239,0]},"r":{"a":0,"k":0}}]},{"ty":"gr","nm":"Fins shape group","it":[{"ty":"sh","ks":{"a":0,"k":{"c":true,"v":[[1.86711855,15.8267536],[14.7214012,1.44837225],[20.3874193,0.212236148],[20.162574,0.784321707],[16.1210997,11.1185827],[15.7692179,19.2172283],[16.2872807,21.6672854],[5.37278456,19.0218237],[2.7278773,17.3554827]],"i":[[-0.019311220000000073,0.03167589999999976],[-6.864566680000001,3.02771219],[-0.41691370000000205,-0.834754255],[0,-0.17232946000000005],[0.635809100000003,-2.2178371099999996],[-0.36816589999999927,-2.364154599999999],[0.037578599999999796,-0.04237439999999992],[0.8768340399999994,0.3335408000000015],[0.5949945300000001,0.8968893999999992]],"o":[[3.5521173299999997,-5.815149],[0.42317679999999847,-0.18661507999999993],[0.1157629,0.231706032],[0,1.510080163],[-0.6511535999999989,2.2709100000000007],[0.011378000000000554,0.07247690000000162],[-0.4362250000000003,0.49139590000000055],[-1.12798437,-0.42898819999999915],[-0.19561748999999962,-0.29483749999999986]]}}},{"ty":"st","o":{"a":0,"k":0},"w":{"a":0,"k":0},"c":{"a":0,"k":[0,0,0,0]},"lc":3,"lj":1,"ml":1},{"ty":"fl","o":{"a":0,"k":100},"r":2,"c":{"a":0,"k":[0.20784313725490197,0.5058823529411764,0.6980392156862745,1]}},{"ty":"tr","o":{"a":0,"k":100},"a":{"a":0,"k":[0,0]},"s":{"a":0,"k":[100,100]},"p":{"a":0,"k":[0.239,0]},"r":{"a":0,"k":0}}]}],"op":60},{"ty":4,"nm":"Head","ip":0,"st":0,"ind":3,"hix":6,"ks":{"o":{"a":0,"k":100},"or":{"a":0,"k":[0,0,0]},"a":{"a":0,"k":[26,19,0]},"p":{"s":true,"x":{"a":0,"k":229.5},"y":{"a":1,"k":[{"t":0,"s":[181],"e":[167],"i":{"x":[0.515],"y":[0.955]},"o":{"x":[0.455],"y":[0.03]}},{"t":30,"s":[167],"e":[181],"i":{"x":[0.515],"y":[0.955]},"o":{"x":[0.455],"y":[0.03]}},{"t":60}]}},"rx":{"a":0,"k":0},"ry":{"a":0,"k":0},"rz":{"a":1,"k":[{"t":0,"s":[0],"e":[13.750987083139757],"i":{"x":[0.515],"y":[0.955]},"o":{"x":[0.455],"y":[0.03]}},{"t":30,"s":[13.750987083139757],"e":[0],"i":{"x":[0.515],"y":[0.955]},"o":{"x":[0.455],"y":[0.03]}},{"t":60}]},"s":{"a":0,"k":[100,100,100]}},"shapes":[{"ty":"gr","nm":"Head shape group","it":[{"ty":"sh","ks":{"a":0,"k":{"c":true,"v":[[17.7074749,21.4995473],[8.67430978,23.169769],[12.1626479,22.9178303],[13.5780042,22.7653245],[15.0370978,22.3675927],[16.1926398,21.7600868],[17.835451,20.1486018]],"i":[[0.045198799999997874,-0.06576420000000027],[-0.11440595999999914,1.842131700000003],[-1.460659399999999,0.11810280000000262],[-0.1664941000000013,0.042164600000003105],[-0.6292328999999999,0.20337600000000222],[-0.07150379999999856,0.20673239999999993],[-0.10167099999999962,-0.03880820000000185]],"o":[[-0.9689016000000024,1.4086333999999994],[0.0007307000000000841,-0.01206200000000024],[0.6870621000000003,-0.055485299999997295],[0.15083629999999992,-0.038283799999998536],[0.5617999999999999,-0.18155949999999876],[0.07192120000000202,-0.2077813000000006],[0.48622530000000097,0.18565010000000015]]}}},{"ty":"st","o":{"a":0,"k":0},"w":{"a":0,"k":0},"c":{"a":0,"k":[0,0,0,0]},"lc":3,"lj":1,"ml":1},{"ty":"fl","o":{"a":0,"k":100},"r":2,"c":{"a":0,"k":[0.2,0.2,0.2,1]}},{"ty":"tr","o":{"a":0,"k":100},"a":{"a":0,"k":[0,0]},"s":{"a":0,"k":[100,100]},"p":{"a":0,"k":[0,0.547]},"r":{"a":0,"k":0}}]},{"ty":"gr","nm":"Head shape group","it":[{"ty":"sh","ks":{"a":0,"k":{"c":true,"v":[[15.7692542,12.6637554],[16.6555873,11.7377075],[17.6956794,10.9125609],[21.4230592,10.422948],[22.8859107,10.691354],[23.791033,11.9881778],[24.2308071,13.7004593],[23.1304847,13.7359111],[21.0177322,11.5000334],[20.246327,11.3278088],[18.0017363,11.5871945],[16.7109113,13.109945],[16.3677978,13.109945],[15.671341,13.109945],[15.5604842,12.6931238],[15.5217573,12.6532667]],"i":[[-0.0825686000000001,0.0019929000000011854],[-0.23382250000000226,0.3631189999999993],[-0.39175690000000074,0.1727489999999996],[-1.2441649000000012,0],[-0.401777899999999,-0.3028089000000005],[-0.19060699999999997,-0.47870460000000037],[0.16315369999999874,-0.5774033999999997],[0.2708790999999984,0.1881674000000011],[1.1372745999999978,0.5595724999999998],[0.2314216000000009,0.04656980000000033],[0.5707771999999984,-0.44639940000000067],[0.4352854999999991,-0.47104779999999913],[0.043424199999996915,0],[0.04154529999999923,0.045940599999999776],[0.00897710000000096,0.03545179999999881],[-0.0041754000000011615,0.0002098000000003708]],"o":[[0.46284309999999884,-0.01132780000000011],[0.2319433999999987,-0.35997250000000136],[1.1550201000000015,-0.5091219000000002],[0.470567599999999,0],[0.4212978000000014,0.3174931999999995],[0.1965570000000021,0.4939131999999997],[-0.11795509999999965,0.4174504999999993],[-0.9666050999999989,-0.6716967999999994],[-0.2102314000000014,-0.10341869999999886],[-0.6835130000000014,-0.137297199999999],[-0.5033445000000007,0.39364119999999936],[-0.035908400000000285,0.03880829999999946],[-0.08747460000000018,0],[-0.044572399999999845,-0.04950670000000024],[-0.0020876999999988044,-0.008600700000000572],[0.08246419999999866,-0.0031465999999991112]]}}},{"ty":"st","o":{"a":0,"k":0},"w":{"a":0,"k":0},"c":{"a":0,"k":[0,0,0,0]},"lc":3,"lj":1,"ml":1},{"ty":"fl","o":{"a":0,"k":100},"r":2,"c":{"a":0,"k":[0.2,0.2,0.2,1]}},{"ty":"tr","o":{"a":0,"k":100},"a":{"a":0,"k":[0,0]},"s":{"a":0,"k":[100,100]},"p":{"a":0,"k":[0,0.547]},"r":{"a":0,"k":0}}]},{"ty":"gr","nm":"Head shape group","it":[{"ty":"sh","ks":{"a":0,"k":{"c":true,"v":[[3.99159846,17.1689699],[6.17804678,17.8146547],[11.5963592,18.0926054],[22.4291219,15.9704253],[24.5980335,19.7811824],[23.7210951,22.5833454],[29.9933812,22.7248381],[39.8045279,26.6979604],[47.9630511,29.1790641],[49.3451085,32.5334576],[44.0866095,36.5211592],[33.4576064,36.7018796],[21.9293265,34.1125324]],"i":[[3.4101537299999998,5.330046299999999],[-0.3569967199999997,-0.07929469999999839],[-1.7916641999999996,0],[-2.625178499999997,-0.8255662000000008],[0.23914600000000164,-1.6287913999999972],[-0.008768400000001009,-0.0019928000000000168],[-2.0817501000000007,-0.562089799999999],[-3.505665999999998,-0.8291322999999977],[-1.5529358000000002,-2.340555000000002],[0.41618299999999664,-0.5865285999999976],[3.556397099999998,-1.6481955],[1.2240185999999937,0.04950670000000201],[3.3697567,1.4857253999999998]],"o":[[-0.1102305600000002,-0.17222459999999984],[1.75314615,0.38934080000000293],[3.0965811999999993,0],[1.6053370000000022,0.5048215000000003],[-0.03559530000000066,0.24218420000000052],[2.019641100000001,0.4607689000000015],[3.428734299999995,0.9258382000000012],[2.562129900000002,0.6060374999999993],[0.4751605000000012,0.7162737999999997],[-1.2946872000000056,1.8243008000000032],[-2.170164200000002,1.0056572000000017],[-2.428517100000004,-0.09838409999999698],[-7.080017399999999,-3.1213343999999985]]}}},{"ty":"st","o":{"a":0,"k":0},"w":{"a":0,"k":0},"c":{"a":0,"k":[0,0,0,0]},"lc":3,"lj":1,"ml":1},{"ty":"fl","o":{"a":0,"k":100},"r":2,"c":{"a":0,"k":[0.8588235294117647,0.8588235294117647,0.8588235294117647,1]}},{"ty":"tr","o":{"a":0,"k":100},"a":{"a":0,"k":[0,0]},"s":{"a":0,"k":[100,100]},"p":{"a":0,"k":[0,0.547]},"r":{"a":0,"k":0}}]},{"ty":"gr","nm":"Head shape group","it":[{"ty":"sh","ks":{"a":0,"k":{"c":true,"v":[[0.0962632386,8.05763964],[1.23948781,6.69756897],[5.8402569,6.26889551],[19.7875549,3.51015573],[47.8630502,3.2937737],[50.8388579,11.0462919],[51.9067165,19.8760003],[39.0692399,33.6384429],[31.6623931,34.2005327],[9.15082733,23.4030379],[2.31496652,14.3603038]],"i":[[-0.5783973116,1.2470024100000003],[-0.639358153,0],[-1.5089896300000003,0.19960009999999961],[-4.590017400000001,0.9850993800000003],[-2.7349915000000067,-6.5750559200000005],[0,-2.748565749999999],[0.41096379999999755,-2.7992261999999997],[4.1154832,-3.8608931999999996],[1.3147290999999974,0],[4.453586270000001,6.482125999999997],[1.2230791,3.1550031999999995]],"o":[[0.2109620944,-0.4545805700000001],[1.5986563500000002,0],[4.6510827,-0.6152675700000003],[8.3544539,-1.79283473],[1.0454158999999947,2.5133040299999996],[0,2.8362513000000007],[-0.9089846000000037,6.190539899999997],[-0.955227199999996,0.8960501999999977],[-7.579708399999998,0],[-1.9437531799999999,-2.829014100000002],[-0.60522426,-1.5615587000000009]]}}},{"ty":"st","o":{"a":0,"k":0},"w":{"a":0,"k":0},"c":{"a":0,"k":[0,0,0,0]},"lc":3,"lj":1,"ml":1},{"ty":"fl","o":{"a":0,"k":100},"r":2,"c":{"a":0,"k":[0.20784313725490197,0.5058823529411764,0.6980392156862745,1]}},{"ty":"tr","o":{"a":0,"k":100},"a":{"a":0,"k":[0,0]},"s":{"a":0,"k":[100,100]},"p":{"a":0,"k":[0,0.547]},"r":{"a":0,"k":0}}]}],"op":60},{"ty":4,"nm":"Tail","ip":0,"st":0,"ind":2,"hix":5,"ks":{"o":{"a":0,"k":100},"or":{"a":0,"k":[0,0,0]},"a":{"a":0,"k":[45,23.5,0]},"p":{"s":true,"x":{"a":0,"k":274},"y":{"a":1,"k":[{"t":0,"s":[176.5],"e":[162.5],"i":{"x":[0.515],"y":[0.955]},"o":{"x":[0.455],"y":[0.03]}},{"t":30,"s":[162.5],"e":[176.5],"i":{"x":[0.515],"y":[0.955]},"o":{"x":[0.455],"y":[0.03]}},{"t":60}]}},"rx":{"a":0,"k":0},"ry":{"a":0,"k":0},"rz":{"a":1,"k":[{"t":0,"s":[0],"e":[-13.750987083139757],"i":{"x":[0.515],"y":[0.955]},"o":{"x":[0.455],"y":[0.03]}},{"t":30,"s":[-13.750987083139757],"e":[0],"i":{"x":[0.515],"y":[0.955]},"o":{"x":[0.455],"y":[0.03]}},{"t":60}]},"s":{"a":0,"k":[100,100,100]}},"shapes":[{"ty":"gr","nm":"Tail shape group","it":[{"ty":"sh","ks":{"a":0,"k":{"c":false,"v":[[4.85361933,37.6685159],[12.8816613,10.0832159],[36.4864512,15.6276514],[56.5368273,19.6299323],[73.4492858,22.2951128],[80.047462,7.21675705],[84.8262075,2.0253714],[88.9943007,0.0152106577],[88.6414794,1.1174689],[88.1581768,3.22444041],[86.3564917,9.43983855],[80.840788,24.785027],[81.4931943,27.0931719],[89.187413,41.2321591],[83.4608516,39.330032],[72.1987534,27.6811689],[44.8386086,33.2495187],[25.0472117,36.2693224],[8.53726177,36.4761597]],"i":[[0,0],[-9.28515058,3.1099017],[-8.549862599999997,-2.798177299999999],[-6.651203699999996,-1.4783833000000008],[-1.677466999999993,1.2615817000000007],[-2.629458299999996,4.381867250000001],[-2.2129620999999986,1.21490696],[-0.9394649999999984,0.3807400733],[0.1315251000000046,-0.35546228599999996],[0.22651549999999077,-0.70316293],[0.5981259999999935,-2.0555768399999996],[1.766194299999995,-6.496285699999998],[-1.0020961000000028,-2.333317800000003],[0.5104426999999987,-0.5411123999999958],[0.6555378999999988,0.49412299999999476],[3.1649534000000017,-0.7198399999999978],[3.334683399999996,-0.6203022000000047],[12.188097500000005,-1.115788700000003],[7.161124529999999,0.4391622000000055]],"o":[[-10.93359856,-6.005519100000004],[9.5201212,-3.188462160000001],[6.431786500000001,2.104978700000002],[1.646151500000002,0.365950999999999],[4.386257900000004,-3.298593499999999],[1.2808040000000034,-2.13434703],[1.156585800000002,-0.6353010000000001],[0.34968980000000727,-0.1419122087],[-0.25574319999999773,0.69508663],[-0.6471870000000024,2.01079007],[-2.0845686000000114,7.15885735],[-0.3841368000000074,1.4118849000000004],[1.5480296000000067,3.6038149999999973],[-0.9394651000000067,0.995902700000002],[-2.5626517999999976,-1.930551400000006],[-3.316311600000006,0.7543478000000015],[-13.1967699,2.4546720999999962],[-7.184089199999999,0.6576419000000016],[0,0]]}}},{"ty":"st","o":{"a":0,"k":0},"w":{"a":0,"k":0},"c":{"a":0,"k":[0,0,0,0]},"lc":3,"lj":1,"ml":1},{"ty":"fl","o":{"a":0,"k":100},"r":2,"c":{"a":0,"k":[0.20784313725490197,0.5058823529411764,0.6980392156862745,1]}},{"ty":"tr","o":{"a":0,"k":100},"a":{"a":0,"k":[0,0]},"s":{"a":0,"k":[100,100]},"p":{"a":0,"k":[0.785,0.77]},"r":{"a":0,"k":0}}]},{"ty":"gr","nm":"Tail shape group","it":[{"ty":"sh","ks":{"a":0,"k":{"c":false,"v":[[73.7927125,28.7421016],[50.0734122,39.5832294],[34.0383097,44.3911479],[22.0939511,45.8584132],[15.6224984,44.9546013],[3.40642563,28.8192985],[16.6075796,22.4635615],[59.3468717,27.3147983],[70.2269207,27.6966922],[74.6893797,27.3184694]],"i":[[0,0],[7.4634234999999975,-2.7052473000000035],[5.2215466999999975,-0.9714639999999974],[2.5239250999999996,0],[1.9678661000000002,0.7258185000000026],[-1.5832073700000002,10.8768943],[-3.536459500000001,0],[-14.136652500000004,-2.9234125000000013],[-3.9499285999999927,0],[0,0.04226949999999974]],"o":[[-7.172293699999997,3.324500699999998],[-4.5487854,1.6488247999999999],[-2.1982438,0.4090595999999991],[-2.0765309000000016,0],[-7.413109929999999,-2.7343011000000033],[0.6902980300000001,-4.7423641],[14.5865519,0],[3.870595899999998,0.8003932999999996],[1.2181730000000073,0],[0,0]]}}},{"ty":"st","o":{"a":0,"k":0},"w":{"a":0,"k":0},"c":{"a":0,"k":[0,0,0,0]},"lc":3,"lj":1,"ml":1},{"ty":"fl","o":{"a":0,"k":100},"r":2,"c":{"a":0,"k":[0.8588235294117647,0.8588235294117647,0.8588235294117647,1]}},{"ty":"tr","o":{"a":0,"k":100},"a":{"a":0,"k":[0,0]},"s":{"a":0,"k":[100,100]},"p":{"a":0,"k":[0.785,0.77]},"r":{"a":0,"k":0}}]}],"op":60},{"ty":4,"nm":"Back Fin","ip":0,"st":0,"ind":1,"hix":2,"ks":{"o":{"a":0,"k":100},"or":{"a":0,"k":[0,0,0]},"a":{"a":0,"k":[8.5,11.5,0]},"p":{"s":true,"x":{"a":1,"k":[{"t":0,"s":[242.189453125],"e":[237.189453125],"i":{"x":[0.515],"y":[0.955]},"o":{"x":[0.455],"y":[0.03]}},{"t":30,"s":[237.189453125],"e":[242.189453125],"i":{"x":[0.515],"y":[0.955]},"o":{"x":[0.455],"y":[0.03]}},{"t":60}]},"y":{"a":1,"k":[{"t":0,"s":[195],"e":[181],"i":{"x":[0.515],"y":[0.955]},"o":{"x":[0.455],"y":[0.03]}},{"t":30,"s":[181],"e":[195],"i":{"x":[0.515],"y":[0.955]},"o":{"x":[0.455],"y":[0.03]}},{"t":60}]}},"rx":{"a":0,"k":0},"ry":{"a":0,"k":0},"rz":{"a":0,"k":0},"s":{"a":0,"k":[100,100,100]}},"shapes":[{"ty":"gr","nm":"Back Fin shape group","it":[{"ty":"sh","ks":{"a":0,"k":{"c":true,"v":[[0.00019276585,3.89098228],[10.7378607,19.9270619],[16.1774677,21.9435159],[16.0340427,21.3455547],[13.4632488,10.5466964],[14.2365329,2.47762898],[15.0888364,0.123858186],[3.91410852,1.21730592],[1.06418912,2.49755752]],"i":[[-0.01482267065,-0.03408829999999963],[-6.378550130000001,-3.958228300000002],[-0.5285013000000003,0.7682977999999991],[-0.023904200000000486,0.17065119999999823],[0.3224451999999989,2.2851745999999995],[-0.6920725999999995,2.2895799],[0.0314198999999995,0.04719918199999999],[0.9146214199999996,-0.20767641000000014],[0.71347151,-0.80490339]],"o":[[2.71202681415,6.255360120000001],[0.39311389999999946,0.24396729999999778],[0.14666090000000054,-0.21334030000000226],[0.20908310000000085,-1.4953749999999992],[-0.33027419999999985,-2.3398208599999997],[0.021294499999999772,-0.0702743400000001],[-0.3638861000000002,-0.547615406],[-1.1763146200000003,0.26704247999999997],[-0.234553106,0.2645252]]}}},{"ty":"st","o":{"a":0,"k":0},"w":{"a":0,"k":0},"c":{"a":0,"k":[0,0,0,0]},"lc":3,"lj":1,"ml":1},{"ty":"fl","o":{"a":0,"k":100},"r":2,"c":{"a":0,"k":[0.20784313725490197,0.5058823529411764,0.6980392156862745,1]}},{"ty":"tr","o":{"a":0,"k":100},"a":{"a":0,"k":[0,0]},"s":{"a":0,"k":[100,100]},"p":{"a":0,"k":[-0.003,0.912]},"r":{"a":0,"k":0}}]}],"op":60}],"op":60,"w":550,"h":400}